<?xml version="1.0"?>
<opencv_storage>
<cascade>
  <stageType>BOOST</stageType>
  <featureType>HAAR</featureType>
  <height>24</height>
  <width>24</width>
  <stageParams>
    <boostType>GAB</boostType>
    <minHitRate>9.9500000476837158e-01</minHitRate>
    <maxFalseAlarm>5.0000000000000000e-01</maxFalseAlarm>
    <weightTrimRate>9.4999999999999996e-01</weightTrimRate>
    <maxDepth>1</maxDepth>
    <maxWeakCount>100</maxWeakCount></stageParams>
  <featureParams>
    <maxCatCount>0</maxCatCount>
    <featSize>1</featSize>
    <mode>BASIC</mode></featureParams>
  <stageNum>20</stageNum>
  <stages>
    <!-- stage 0 -->
    <_>
      <maxWeakCount>2</maxWeakCount>
      <stageThreshold>1.9595846533775330e-02</stageThreshold>
      <weakClassifiers>
        <_>
          <internalNodes>
            0 -1 31 5.8910867664963007e-04</internalNodes>
          <leafValues>
            -9.2857140302658081e-01 7.9220777750015259e-01</leafValues></_>
        <_>
          <internalNodes>
            0 -1 27 -1.2142255436629057e-03</internalNodes>
          <leafValues>
            9.4816726446151733e-01 -7.4221140146255493e-01</leafValues></_></weakClassifiers></_>
    <!-- stage 1 -->
    <_>
      <maxWeakCount>2</maxWeakCount>
      <stageThreshold>1.7124177515506744e-01</stageThreshold>
      <weakClassifiers>
        <_>
          <internalNodes>
            0 -1 13 -3.0903355218470097e-03</internalNodes>
          <leafValues>
            8.8571429252624512e-01 -7.7142858505249023e-01</leafValues></_>
        <_>
          <internalNodes>
            0 -1 39 1.3599727302789688e-02</internalNodes>
          <leafValues>
            -6.7177939414978027e-01 9.4267034530639648e-01</leafValues></_></weakClassifiers></_>
    <!-- stage 2 -->
    <_>
      <maxWeakCount>2</maxWeakCount>
      <stageThreshold>1.8457826226949692e-02</stageThreshold>
      <weakClassifiers>
        <_>
          <internalNodes>
            0 -1 28 -2.0394711755216122e-03</internalNodes>
          <leafValues>
            8.7500000000000000e-01 -5.1219511032104492e-01</leafValues></_>
        <_>
          <internalNodes>
            0 -1 23 -5.7181314332410693e-04</internalNodes>
          <leafValues>
            7.1727597713470459e-01 -8.5654217004776001e-01</leafValues></_></weakClassifiers></_>
    <!-- stage 3 -->
    <_>
      <maxWeakCount>2</maxWeakCount>
      <stageThreshold>1.1537851393222809e-01</stageThreshold>
      <weakClassifiers>
        <_>
          <internalNodes>
            0 -1 17 -7.7584451064467430e-03</internalNodes>
          <leafValues>
            7.4025976657867432e-01 -7.8571426868438721e-01</leafValues></_>
        <_>
          <internalNodes>
            0 -1 3 -3.2439092174172401e-03</internalNodes>
          <leafValues>
            9.1650283336639404e-01 -6.2488120794296265e-01</leafValues></_></weakClassifiers></_>
    <!-- stage 4 -->
    <_>
      <maxWeakCount>1</maxWeakCount>
      <stageThreshold>6.8674701452255249e-01</stageThreshold>
      <weakClassifiers>
        <_>
          <internalNodes>
            0 -1 40 -2.6999083347618580e-03</internalNodes>
          <leafValues>
            -1. 6.8674701452255249e-01</leafValues></_></weakClassifiers></_>
    <!-- stage 5 -->
    <_>
      <maxWeakCount>1</maxWeakCount>
      <stageThreshold>6.6666668653488159e-01</stageThreshold>
      <weakClassifiers>
        <_>
          <internalNodes>
            0 -1 30 1.4585576718673110e-04</internalNodes>
          <leafValues>
            6.6666668653488159e-01 -1.</leafValues></_></weakClassifiers></_>
    <!-- stage 6 -->
    <_>
      <maxWeakCount>3</maxWeakCount>
      <stageThreshold>4.7314915060997009e-01</stageThreshold>
      <weakClassifiers>
        <_>
          <internalNodes>
            0 -1 48 -1.6439866158179939e-05</internalNodes>
          <leafValues>
            8.5507243871688843e-01 -6.6666668653488159e-01</leafValues></_>
        <_>
          <internalNodes>
            0 -1 12 -3.2642609439790249e-03</internalNodes>
          <leafValues>
            -9.5830380916595459e-01 6.8519359827041626e-01</leafValues></_>
        <_>
          <internalNodes>
            0 -1 22 -2.3846336262067780e-05</internalNodes>
          <leafValues>
            5.7638049125671387e-01 -9.2535990476608276e-01</leafValues></_></weakClassifiers></_>
    <!-- stage 7 -->
    <_>
      <maxWeakCount>3</maxWeakCount>
      <stageThreshold>-5.2729898691177368e-01</stageThreshold>
      <weakClassifiers>
        <_>
          <internalNodes>
            0 -1 26 1.6370698576793075e-03</internalNodes>
          <leafValues>
            7.2151899337768555e-01 -8.4615385532379150e-01</leafValues></_>
        <_>
          <internalNodes>
            0 -1 37 -4.1404971852898598e-04</internalNodes>
          <leafValues>
            8.2081288099288940e-01 -6.1254352331161499e-01</leafValues></_>
        <_>
          <internalNodes>
            0 -1 36 6.4359395764768124e-03</internalNodes>
          <leafValues>
            -5.1993840932846069e-01 9.3139839172363281e-01</leafValues></_></weakClassifiers></_>
    <!-- stage 8 -->
    <_>
      <maxWeakCount>2</maxWeakCount>
      <stageThreshold>1.0764365643262863e-01</stageThreshold>
      <weakClassifiers>
        <_>
          <internalNodes>
            0 -1 16 -3.0396430520340800e-04</internalNodes>
          <leafValues>
            -6.5517240762710571e-01 7.1052628755569458e-01</leafValues></_>
        <_>
          <internalNodes>
            0 -1 35 1.0827697813510895e-02</internalNodes>
          <leafValues>
            -6.0288268327713013e-01 8.3074426651000977e-01</leafValues></_></weakClassifiers></_>
    <!-- stage 9 -->
    <_>
      <maxWeakCount>2</maxWeakCount>
      <stageThreshold>1.9404457509517670e-01</stageThreshold>
      <weakClassifiers>
        <_>
          <internalNodes>
            0 -1 11 -1.6852163244038820e-03</internalNodes>
          <leafValues>
            6.9230771064758301e-01 -7.0370370149612427e-01</leafValues></_>
        <_>
          <internalNodes>
            0 -1 4 6.5251840278506279e-03</internalNodes>
          <leafValues>
            -4.9826312065124512e-01 9.3531090021133423e-01</leafValues></_></weakClassifiers></_>
    <!-- stage 10 -->
    <_>
      <maxWeakCount>4</maxWeakCount>
      <stageThreshold>4.5741632580757141e-02</stageThreshold>
      <weakClassifiers>
        <_>
          <internalNodes>
            0 -1 8 -6.4809612929821014e-02</internalNodes>
          <leafValues>
            7.9104477167129517e-01 -4.7368422150611877e-01</leafValues></_>
        <_>
          <internalNodes>
            0 -1 43 4.9111631233245134e-04</internalNodes>
          <leafValues>
            6.3814300298690796e-01 -8.2620823383331299e-01</leafValues></_>
        <_>
          <internalNodes>
            0 -1 45 -1.1883355909958482e-04</internalNodes>
          <leafValues>
            -6.7109632492065430e-01 6.9137150049209595e-01</leafValues></_>
        <_>
          <internalNodes>
            0 -1 10 3.6580853164196014e-02</internalNodes>
          <leafValues>
            -5.8752822875976563e-01 7.5200146436691284e-01</leafValues></_></weakClassifiers></_>
    <!-- stage 11 -->
    <_>
      <maxWeakCount>3</maxWeakCount>
      <stageThreshold>3.7014627456665039e-01</stageThreshold>
      <weakClassifiers>
        <_>
          <internalNodes>
            0 -1 14 1.8104331102222204e-03</internalNodes>
          <leafValues>
            6.5853661298751831e-01 -8.2608693838119507e-01</leafValues></_>
        <_>
          <internalNodes>
            0 -1 19 -1.7964486032724380e-03</internalNodes>
          <leafValues>
            -8.2049870491027832e-01 5.7632291316986084e-01</leafValues></_>
        <_>
          <internalNodes>
            0 -1 29 -2.5710789486765862e-04</internalNodes>
          <leafValues>
            6.1991035938262939e-01 -7.9004698991775513e-01</leafValues></_></weakClassifiers></_>
    <!-- stage 12 -->
    <_>
      <maxWeakCount>3</maxWeakCount>
      <stageThreshold>5.8122199773788452e-01</stageThreshold>
      <weakClassifiers>
        <_>
          <internalNodes>
            0 -1 34 1.1916731018573046e-03</internalNodes>
          <leafValues>
            7.0370370149612427e-01 -9.1666668653488159e-01</leafValues></_>
        <_>
          <internalNodes>
            0 -1 44 -4.2462246492505074e-03</internalNodes>
          <leafValues>
            6.5379345417022705e-01 -7.4103528261184692e-01</leafValues></_>
        <_>
          <internalNodes>
            0 -1 38 1.9494663923978806e-02</internalNodes>
          <leafValues>
            -6.6285103559494019e-01 8.4409523010253906e-01</leafValues></_></weakClassifiers></_>
    <!-- stage 13 -->
    <_>
      <maxWeakCount>1</maxWeakCount>
      <stageThreshold>6.4705884456634521e-01</stageThreshold>
      <weakClassifiers>
        <_>
          <internalNodes>
            0 -1 25 -5.9540983056649566e-04</internalNodes>
          <leafValues>
            -1. 6.4705884456634521e-01</leafValues></_></weakClassifiers></_>
    <!-- stage 14 -->
    <_>
      <maxWeakCount>4</maxWeakCount>
      <stageThreshold>-3.0960366129875183e-02</stageThreshold>
      <weakClassifiers>
        <_>
          <internalNodes>
            0 -1 24 -2.7225253870710731e-04</internalNodes>
          <leafValues>
            -8.9999997615814209e-01 6.2352943420410156e-01</leafValues></_>
        <_>
          <internalNodes>
            0 -1 5 -1.9351332448422909e-03</internalNodes>
          <leafValues>
            8.0603009462356567e-01 -5.2571052312850952e-01</leafValues></_>
        <_>
          <internalNodes>
            0 -1 9 1.1507620802149177e-03</internalNodes>
          <leafValues>
            -5.3673869371414185e-01 8.0462163686752319e-01</leafValues></_>
        <_>
          <internalNodes>
            0 -1 1 -6.9682172033935785e-04</internalNodes>
          <leafValues>
            5.9974825382232666e-01 -7.5653994083404541e-01</leafValues></_></weakClassifiers></_>
    <!-- stage 15 -->
    <_>
      <maxWeakCount>2</maxWeakCount>
      <stageThreshold>1.9340083003044128e-01</stageThreshold>
      <weakClassifiers>
        <_>
          <internalNodes>
            0 -1 0 -2.2412627004086971e-03</internalNodes>
          <leafValues>
            8.9473682641983032e-01 -3.3333334326744080e-01</leafValues></_>
        <_>
          <internalNodes>
            0 -1 6 -2.1693868562579155e-02</internalNodes>
          <leafValues>
            6.2767839431762695e-01 -7.0133602619171143e-01</leafValues></_></weakClassifiers></_>
    <!-- stage 16 -->
    <_>
      <maxWeakCount>2</maxWeakCount>
      <stageThreshold>-4.9173906445503235e-02</stageThreshold>
      <weakClassifiers>
        <_>
          <internalNodes>
            0 -1 20 -5.3226435557007790e-04</internalNodes>
          <leafValues>
            -8.9999997615814209e-01 6.2352943420410156e-01</leafValues></_>
        <_>
          <internalNodes>
            0 -1 7 -1.3502330984920263e-03</internalNodes>
          <leafValues>
            8.5082608461380005e-01 -5.1642757654190063e-01</leafValues></_></weakClassifiers></_>
    <!-- stage 17 -->
    <_>
      <maxWeakCount>4</maxWeakCount>
      <stageThreshold>1.2934392690658569e-01</stageThreshold>
      <weakClassifiers>
        <_>
          <internalNodes>
            0 -1 15 5.9184040874242783e-03</internalNodes>
          <leafValues>
            5.7303369045257568e-01 -1.</leafValues></_>
        <_>
          <internalNodes>
            0 -1 2 -8.0973356962203979e-03</internalNodes>
          <leafValues>
            9.2003440856933594e-01 -4.9590402841567993e-01</leafValues></_>
        <_>
          <internalNodes>
            0 -1 41 4.8190748202614486e-04</internalNodes>
          <leafValues>
            -5.6625092029571533e-01 8.5670173168182373e-01</leafValues></_>
        <_>
          <internalNodes>
            0 -1 33 -5.5195717141032219e-04</internalNodes>
          <leafValues>
            6.1846512556076050e-01 -7.6770544052124023e-01</leafValues></_></weakClassifiers></_>
    <!-- stage 18 -->
    <_>
      <maxWeakCount>4</maxWeakCount>
      <stageThreshold>-8.2857748493552208e-03</stageThreshold>
      <weakClassifiers>
        <_>
          <internalNodes>
            0 -1 21 -1.7177588306367397e-03</internalNodes>
          <leafValues>
            6.3414633274078369e-01 -7.3913043737411499e-01</leafValues></_>
        <_>
          <internalNodes>
            0 -1 32 3.5185869783163071e-03</internalNodes>
          <leafValues>
            -7.5045168399810791e-01 6.4645445346832275e-01</leafValues></_>
        <_>
          <internalNodes>
            0 -1 42 -1.6024203432607464e-05</internalNodes>
          <leafValues>
            8.5861748456954956e-01 -6.6926950216293335e-01</leafValues></_>
        <_>
          <internalNodes>
            0 -1 47 5.3662317804992199e-04</internalNodes>
          <leafValues>
            -6.1961704492568970e-01 7.7391809225082397e-01</leafValues></_></weakClassifiers></_>
    <!-- stage 19 -->
    <_>
      <maxWeakCount>2</maxWeakCount>
      <stageThreshold>2.5308805704116821e-01</stageThreshold>
      <weakClassifiers>
        <_>
          <internalNodes>
            0 -1 46 -6.7601358750835061e-04</internalNodes>
          <leafValues>
            -5.6756758689880371e-01 8.2352942228317261e-01</leafValues></_>
        <_>
          <internalNodes>
            0 -1 18 1.4868000289425254e-03</internalNodes>
          <leafValues>
            -5.7044136524200439e-01 8.4551322460174561e-01</leafValues></_></weakClassifiers></_></stages>
  <features>
    <_>
      <rects>
        <_>
          0 1 5 4 -1.</_>
        <_>
          0 3 5 2 2.</_></rects>
      <tilted>0</tilted></_>
    <_>
      <rects>
        <_>
          0 22 22 2 -1.</_>
        <_>
          0 23 22 1 2.</_></rects>
      <tilted>0</tilted></_>
    <_>
      <rects>
        <_>
          1 7 9 2 -1.</_>
        <_>
          4 7 3 2 3.</_></rects>
      <tilted>0</tilted></_>
    <_>
      <rects>
        <_>
          2 0 4 12 -1.</_>
        <_>
          2 4 4 4 3.</_></rects>
      <tilted>0</tilted></_>
    <_>
      <rects>
        <_>
          2 6 12 1 -1.</_>
        <_>
          8 6 6 1 2.</_></rects>
      <tilted>0</tilted></_>
    <_>
      <rects>
        <_>
          2 8 12 2 -1.</_>
        <_>
          2 8 6 1 2.</_>
        <_>
          8 9 6 1 2.</_></rects>
      <tilted>0</tilted></_>
    <_>
      <rects>
        <_>
          2 10 22 9 -1.</_>
        <_>
          2 13 22 3 3.</_></rects>
      <tilted>0</tilted></_>
    <_>
      <rects>
        <_>
          2 17 4 3 -1.</_>
        <_>
          4 17 2 3 2.</_></rects>
      <tilted>0</tilted></_>
    <_>
      <rects>
        <_>
          3 7 15 10 -1.</_>
        <_>
          3 12 15 5 2.</_></rects>
      <tilted>0</tilted></_>
    <_>
      <rects>
        <_>
          3 17 3 6 -1.</_>
        <_>
          3 19 3 2 3.</_></rects>
      <tilted>0</tilted></_>
    <_>
      <rects>
        <_>
          4 4 18 7 -1.</_>
        <_>
          10 4 6 7 3.</_></rects>
      <tilted>0</tilted></_>
    <_>
      <rects>
        <_>
          4 17 12 3 -1.</_>
        <_>
          10 17 6 3 2.</_></rects>
      <tilted>0</tilted></_>
    <_>
      <rects>
        <_>
          4 19 5 2 -1.</_>
        <_>
          4 20 5 1 2.</_></rects>
      <tilted>0</tilted></_>
    <_>
      <rects>
        <_>
          5 16 15 2 -1.</_>
        <_>
          10 16 5 2 3.</_></rects>
      <tilted>0</tilted></_>
    <_>
      <rects>
        <_>
          5 19 4 3 -1.</_>
        <_>
          5 20 4 1 3.</_></rects>
      <tilted>0</tilted></_>
    <_>
      <rects>
        <_>
          6 14 12 4 -1.</_>
        <_>
          6 14 6 2 2.</_>
        <_>
          12 16 6 2 2.</_></rects>
      <tilted>0</tilted></_>
    <_>
      <rects>
        <_>
          6 18 6 2 -1.</_>
        <_>
          6 18 3 1 2.</_>
        <_>
          9 19 3 1 2.</_></rects>
      <tilted>0</tilted></_>
    <_>
      <rects>
        <_>
          7 9 8 9 -1.</_>
        <_>
          7 12 8 3 3.</_></rects>
      <tilted>0</tilted></_>
    <_>
      <rects>
        <_>
          7 10 6 5 -1.</_>
        <_>
          9 10 2 5 3.</_></rects>
      <tilted>0</tilted></_>
    <_>
      <rects>
        <_>
          7 16 12 2 -1.</_>
        <_>
          7 16 6 1 2.</_>
        <_>
          13 17 6 1 2.</_></rects>
      <tilted>0</tilted></_>
    <_>
      <rects>
        <_>
          7 18 3 3 -1.</_>
        <_>
          8 18 1 3 3.</_></rects>
      <tilted>0</tilted></_>
    <_>
      <rects>
        <_>
          9 9 6 13 -1.</_>
        <_>
          12 9 3 13 2.</_></rects>
      <tilted>0</tilted></_>
    <_>
      <rects>
        <_>
          9 10 5 2 -1.</_>
        <_>
          9 11 5 1 2.</_></rects>
      <tilted>0</tilted></_>
    <_>
      <rects>
        <_>
          9 14 4 7 -1.</_>
        <_>
          11 14 2 7 2.</_></rects>
      <tilted>0</tilted></_>
    <_>
      <rects>
        <_>
          9 18 1 3 -1.</_>
        <_>
          9 19 1 1 3.</_></rects>
      <tilted>0</tilted></_>
    <_>
      <rects>
        <_>
          9 19 2 3 -1.</_>
        <_>
          9 20 2 1 3.</_></rects>
      <tilted>0</tilted></_>
    <_>
      <rects>
        <_>
          10 7 1 16 -1.</_>
        <_>
          10 15 1 8 2.</_></rects>
      <tilted>0</tilted></_>
    <_>
      <rects>
        <_>
          10 9 1 4 -1.</_>
        <_>
          10 11 1 2 2.</_></rects>
      <tilted>0</tilted></_>
    <_>
      <rects>
        <_>
          10 9 7 2 -1.</_>
        <_>
          10 10 7 1 2.</_></rects>
      <tilted>0</tilted></_>
    <_>
      <rects>
        <_>
          10 10 1 2 -1.</_>
        <_>
          10 11 1 1 2.</_></rects>
      <tilted>0</tilted></_>
    <_>
      <rects>
        <_>
          10 21 1 2 -1.</_>
        <_>
          10 22 1 1 2.</_></rects>
      <tilted>0</tilted></_>
    <_>
      <rects>
        <_>
          11 14 4 8 -1.</_>
        <_>
          11 18 4 4 2.</_></rects>
      <tilted>0</tilted></_>
    <_>
      <rects>
        <_>
          11 14 12 3 -1.</_>
        <_>
          17 14 6 3 2.</_></rects>
      <tilted>0</tilted></_>
    <_>
      <rects>
        <_>
          11 22 4 2 -1.</_>
        <_>
          11 23 4 1 2.</_></rects>
      <tilted>0</tilted></_>
    <_>
      <rects>
        <_>
          11 23 6 1 -1.</_>
        <_>
          13 23 2 1 3.</_></rects>
      <tilted>0</tilted></_>
    <_>
      <rects>
        <_>
          12 4 10 10 -1.</_>
        <_>
          12 4 5 5 2.</_>
        <_>
          17 9 5 5 2.</_></rects>
      <tilted>0</tilted></_>
    <_>
      <rects>
        <_>
          12 7 6 10 -1.</_>
        <_>
          12 7 3 5 2.</_>
        <_>
          15 12 3 5 2.</_></rects>
      <tilted>0</tilted></_>
    <_>
      <rects>
        <_>
          12 22 3 2 -1.</_>
        <_>
          12 23 3 1 2.</_></rects>
      <tilted>0</tilted></_>
    <_>
      <rects>
        <_>
          13 5 8 10 -1.</_>
        <_>
          13 5 4 5 2.</_>
        <_>
          17 10 4 5 2.</_></rects>
      <tilted>0</tilted></_>
    <_>
      <rects>
        <_>
          13 6 10 12 -1.</_>
        <_>
          13 6 5 6 2.</_>
        <_>
          18 12 5 6 2.</_></rects>
      <tilted>0</tilted></_>
    <_>
      <rects>
        <_>
          13 12 2 12 -1.</_>
        <_>
          13 18 2 6 2.</_></rects>
      <tilted>0</tilted></_>
    <_>
      <rects>
        <_>
          14 20 8 1 -1.</_>
        <_>
          18 20 4 1 2.</_></rects>
      <tilted>0</tilted></_>
    <_>
      <rects>
        <_>
          14 21 1 2 -1.</_>
        <_>
          14 22 1 1 2.</_></rects>
      <tilted>0</tilted></_>
    <_>
      <rects>
        <_>
          14 22 3 2 -1.</_>
        <_>
          15 22 1 2 3.</_></rects>
      <tilted>0</tilted></_>
    <_>
      <rects>
        <_>
          15 11 8 9 -1.</_>
        <_>
          15 14 8 3 3.</_></rects>
      <tilted>0</tilted></_>
    <_>
      <rects>
        <_>
          16 15 4 1 -1.</_>
        <_>
          18 15 2 1 2.</_></rects>
      <tilted>0</tilted></_>
    <_>
      <rects>
        <_>
          17 10 2 10 -1.</_>
        <_>
          17 10 1 5 2.</_>
        <_>
          18 15 1 5 2.</_></rects>
      <tilted>0</tilted></_>
    <_>
      <rects>
        <_>
          17 18 4 1 -1.</_>
        <_>
          19 18 2 1 2.</_></rects>
      <tilted>0</tilted></_>
    <_>
      <rects>
        <_>
          20 1 1 2 -1.</_>
        <_>
          20 2 1 1 2.</_></rects>
      <tilted>0</tilted></_></features></cascade>
</opencv_storage>
